digraph Tree {
node [shape=box] ;
0 [label="X[0] <= -1.615\ngini = 0.667\nsamples = 135\nvalue = [44, 45, 46]"] ;
1 [label="gini = 0.0\nsamples = 44\nvalue = [44, 0, 0]"] ;
0 -> 1 [labeldistance=2.5, labelangle=45, headlabel="True"] ;
2 [label="X[0] <= 1.092\ngini = 0.5\nsamples = 91\nvalue = [0, 45, 46]"] ;
0 -> 2 [labeldistance=2.5, labelangle=-45, headlabel="False"] ;
3 [label="gini = 0.0\nsamples = 39\nvalue = [0, 39, 0]"] ;
2 -> 3 ;
4 [label="X[0] <= 1.508\ngini = 0.204\nsamples = 52\nvalue = [0, 6, 46]"] ;
2 -> 4 ;
5 [label="gini = 0.469\nsamples = 16\nvalue = [0, 6, 10]"] ;
4 -> 5 ;
6 [label="gini = 0.0\nsamples = 36\nvalue = [0, 0, 36]"] ;
4 -> 6 ;
}